{"w1": [[6.918091467850931, -0.9499784895546661, -0.5219697066986018, -0.5535785237023545, -3.272786128343935, 4.840262251204329, 6.729503030307261, -0.8261223347411677], [0.1469206064287046, -0.9404055611238593, -0.5870536361449163, 0.010710576206724776, -0.17367782916138355, -0.09505310337252745, 0.14640427728991812, 0.08988296120643335], [2.5053516393748034, 0.17853136775181744, 0.4501717903956915, -0.987002480643878, 3.6578794257214295, 0.6156299152245438, 0.3367426970920092, -0.6890410003764369]], "b1": [-5.351094201228702, 0.0, -0.19615043978375882, 0.0, 2.2156325646946393, -2.1519909944075195, -2.889327245652441, 0.0], "w2": [[1.4774211868688862, -4.640922084396964, 2.936607818927289], [-0.806567246333072, 0.6949887326949196, 0.20745206273378214], [0.5866112231630294, 0.4353035090686447, 0.12426157061412685], [0.9462315279587412, -0.24293124558329304, 0.104081262546454], [-2.9157111034537744, 1.1902246456714902, 3.3447490916384663], [1.5326826843426438, 1.2971118281566096, -3.1742977822446186], [2.0962049047144227, 0.9473734973530784, -4.849421969713059], [-0.5344182272779396, -0.7979971411805418, -0.44405279377981577]], "b2": [-3.893481502571665, 0.5802589185905346, 3.3132225839811618]}